#pragma once
#include <cstdarg>
namespace Eloquent {
    namespace ML {
        namespace Port {
            class RandomForestModel {
                public:
                    /**
                    * Predict class for features vector
                    */
                    int predict(float *x) {
                        uint8_t votes[3] = { 0 };
                        // tree #1
                        if (x[1] <= 0.5011781752109528) {
                            if (x[0] <= -0.864727109670639) {
                                votes[0] += 1;
                            }

                            else {
                                votes[1] += 1;
                            }
                        }

                        else {
                            votes[2] += 1;
                        }

                        // tree #2
                        if (x[0] <= 0.5011781752109528) {
                            if (x[0] <= -0.8629959523677826) {
                                votes[0] += 1;
                            }

                            else {
                                votes[1] += 1;
                            }
                        }

                        else {
                            votes[2] += 1;
                        }

                        // tree #3
                        if (x[0] <= 0.5037749707698822) {
                            if (x[1] <= -0.864727109670639) {
                                votes[0] += 1;
                            }

                            else {
                                votes[1] += 1;
                            }
                        }

                        else {
                            votes[2] += 1;
                        }

                        // tree #4
                        if (x[0] <= 0.5011781752109528) {
                            if (x[0] <= -0.8655926883220673) {
                                votes[0] += 1;
                            }

                            else {
                                votes[1] += 1;
                            }
                        }

                        else {
                            votes[2] += 1;
                        }

                        // tree #5
                        if (x[1] <= 0.5029093623161316) {
                            if (x[1] <= -0.864727109670639) {
                                votes[0] += 1;
                            }

                            else {
                                votes[1] += 1;
                            }
                        }

                        else {
                            votes[2] += 1;
                        }

                        // tree #6
                        if (x[1] <= 0.5029093623161316) {
                            if (x[0] <= -0.8664582967758179) {
                                votes[0] += 1;
                            }

                            else {
                                votes[1] += 1;
                            }
                        }

                        else {
                            votes[2] += 1;
                        }

                        // tree #7
                        if (x[0] <= 0.5029093623161316) {
                            if (x[0] <= -0.8638615310192108) {
                                votes[0] += 1;
                            }

                            else {
                                votes[1] += 1;
                            }
                        }

                        else {
                            votes[2] += 1;
                        }

                        // tree #8
                        if (x[0] <= 0.5011781752109528) {
                            if (x[1] <= -0.8638615310192108) {
                                votes[0] += 1;
                            }

                            else {
                                votes[1] += 1;
                            }
                        }

                        else {
                            votes[2] += 1;
                        }

                        // tree #9
                        if (x[0] <= 0.5037749707698822) {
                            if (x[0] <= -0.8629959225654602) {
                                votes[0] += 1;
                            }

                            else {
                                votes[1] += 1;
                            }
                        }

                        else {
                            votes[2] += 1;
                        }

                        // tree #10
                        if (x[1] <= 0.5029093623161316) {
                            if (x[0] <= -0.864727109670639) {
                                votes[0] += 1;
                            }

                            else {
                                votes[1] += 1;
                            }
                        }

                        else {
                            votes[2] += 1;
                        }

                        // tree #11
                        if (x[0] <= 0.5029093623161316) {
                            if (x[1] <= -0.864727109670639) {
                                votes[0] += 1;
                            }

                            else {
                                votes[1] += 1;
                            }
                        }

                        else {
                            votes[2] += 1;
                        }

                        // tree #12
                        if (x[1] <= 0.5037749707698822) {
                            if (x[0] <= -0.8638615310192108) {
                                votes[0] += 1;
                            }

                            else {
                                votes[1] += 1;
                            }
                        }

                        else {
                            votes[2] += 1;
                        }

                        // tree #13
                        if (x[0] <= 0.5029093623161316) {
                            if (x[1] <= -0.8655926883220673) {
                                votes[0] += 1;
                            }

                            else {
                                votes[1] += 1;
                            }
                        }

                        else {
                            votes[2] += 1;
                        }

                        // tree #14
                        if (x[0] <= 0.5029093623161316) {
                            if (x[1] <= -0.864727109670639) {
                                votes[0] += 1;
                            }

                            else {
                                votes[1] += 1;
                            }
                        }

                        else {
                            votes[2] += 1;
                        }

                        // tree #15
                        if (x[1] <= 0.5020437836647034) {
                            if (x[1] <= -0.8638615310192108) {
                                votes[0] += 1;
                            }

                            else {
                                votes[1] += 1;
                            }
                        }

                        else {
                            votes[2] += 1;
                        }

                        // tree #16
                        if (x[0] <= 0.49685022234916687) {
                            if (x[0] <= -0.864727109670639) {
                                votes[0] += 1;
                            }

                            else {
                                votes[1] += 1;
                            }
                        }

                        else {
                            votes[2] += 1;
                        }

                        // tree #17
                        if (x[1] <= 0.5029093623161316) {
                            if (x[1] <= -0.862130343914032) {
                                votes[0] += 1;
                            }

                            else {
                                votes[1] += 1;
                            }
                        }

                        else {
                            votes[2] += 1;
                        }

                        // tree #18
                        if (x[0] <= 0.5037749707698822) {
                            if (x[0] <= -0.864727109670639) {
                                votes[0] += 1;
                            }

                            else {
                                votes[1] += 1;
                            }
                        }

                        else {
                            votes[2] += 1;
                        }

                        // tree #19
                        if (x[0] <= 0.5037749707698822) {
                            if (x[0] <= -0.8655926883220673) {
                                votes[0] += 1;
                            }

                            else {
                                votes[1] += 1;
                            }
                        }

                        else {
                            votes[2] += 1;
                        }

                        // tree #20
                        if (x[0] <= 0.5029093623161316) {
                            if (x[0] <= -0.864727109670639) {
                                votes[0] += 1;
                            }

                            else {
                                votes[1] += 1;
                            }
                        }

                        else {
                            votes[2] += 1;
                        }

                        // tree #21
                        if (x[1] <= 0.5011781752109528) {
                            if (x[0] <= -0.864727109670639) {
                                votes[0] += 1;
                            }

                            else {
                                votes[1] += 1;
                            }
                        }

                        else {
                            votes[2] += 1;
                        }

                        // tree #22
                        if (x[1] <= 0.5011781752109528) {
                            if (x[0] <= -0.8638615310192108) {
                                votes[0] += 1;
                            }

                            else {
                                votes[1] += 1;
                            }
                        }

                        else {
                            votes[2] += 1;
                        }

                        // tree #23
                        if (x[0] <= 0.5029093623161316) {
                            if (x[1] <= -0.8655926883220673) {
                                votes[0] += 1;
                            }

                            else {
                                votes[1] += 1;
                            }
                        }

                        else {
                            votes[2] += 1;
                        }

                        // tree #24
                        if (x[1] <= 0.5063717365264893) {
                            if (x[1] <= -0.864727109670639) {
                                votes[0] += 1;
                            }

                            else {
                                votes[1] += 1;
                            }
                        }

                        else {
                            votes[2] += 1;
                        }

                        // tree #25
                        if (x[1] <= 0.5029093623161316) {
                            if (x[0] <= -0.8655926883220673) {
                                votes[0] += 1;
                            }

                            else {
                                votes[1] += 1;
                            }
                        }

                        else {
                            votes[2] += 1;
                        }

                        // tree #26
                        if (x[0] <= 0.5029093623161316) {
                            if (x[0] <= -0.8664582967758179) {
                                votes[0] += 1;
                            }

                            else {
                                votes[1] += 1;
                            }
                        }

                        else {
                            votes[2] += 1;
                        }

                        // tree #27
                        if (x[1] <= 0.5037749707698822) {
                            if (x[1] <= -0.8655927181243896) {
                                votes[0] += 1;
                            }

                            else {
                                votes[1] += 1;
                            }
                        }

                        else {
                            votes[2] += 1;
                        }

                        // tree #28
                        if (x[0] <= 0.5063717365264893) {
                            if (x[0] <= -0.864727109670639) {
                                votes[0] += 1;
                            }

                            else {
                                votes[1] += 1;
                            }
                        }

                        else {
                            votes[2] += 1;
                        }

                        // tree #29
                        if (x[1] <= 0.5037749707698822) {
                            if (x[1] <= -0.864727109670639) {
                                votes[0] += 1;
                            }

                            else {
                                votes[1] += 1;
                            }
                        }

                        else {
                            votes[2] += 1;
                        }

                        // tree #30
                        if (x[0] <= 0.5037749707698822) {
                            if (x[0] <= -0.864727109670639) {
                                votes[0] += 1;
                            }

                            else {
                                votes[1] += 1;
                            }
                        }

                        else {
                            votes[2] += 1;
                        }

                        // tree #31
                        if (x[0] <= 0.5029093623161316) {
                            if (x[1] <= -0.8664582967758179) {
                                votes[0] += 1;
                            }

                            else {
                                votes[1] += 1;
                            }
                        }

                        else {
                            votes[2] += 1;
                        }

                        // tree #32
                        if (x[1] <= 0.5011781752109528) {
                            if (x[0] <= -0.8629959523677826) {
                                votes[0] += 1;
                            }

                            else {
                                votes[1] += 1;
                            }
                        }

                        else {
                            votes[2] += 1;
                        }

                        // tree #33
                        if (x[1] <= 0.4985813945531845) {
                            if (x[0] <= -0.864727109670639) {
                                votes[0] += 1;
                            }

                            else {
                                votes[1] += 1;
                            }
                        }

                        else {
                            votes[2] += 1;
                        }

                        // tree #34
                        if (x[0] <= 0.5037749707698822) {
                            if (x[1] <= -0.864727109670639) {
                                votes[0] += 1;
                            }

                            else {
                                votes[1] += 1;
                            }
                        }

                        else {
                            votes[2] += 1;
                        }

                        // tree #35
                        if (x[0] <= 0.5029093623161316) {
                            if (x[0] <= -0.864727109670639) {
                                votes[0] += 1;
                            }

                            else {
                                votes[1] += 1;
                            }
                        }

                        else {
                            votes[2] += 1;
                        }

                        // tree #36
                        if (x[1] <= 0.5029093623161316) {
                            if (x[1] <= -0.8638615310192108) {
                                votes[0] += 1;
                            }

                            else {
                                votes[1] += 1;
                            }
                        }

                        else {
                            votes[2] += 1;
                        }

                        // tree #37
                        if (x[0] <= 0.5037749707698822) {
                            if (x[1] <= -0.864727109670639) {
                                votes[0] += 1;
                            }

                            else {
                                votes[1] += 1;
                            }
                        }

                        else {
                            votes[2] += 1;
                        }

                        // tree #38
                        if (x[1] <= 0.5029093623161316) {
                            if (x[1] <= -0.8655927181243896) {
                                votes[0] += 1;
                            }

                            else {
                                votes[1] += 1;
                            }
                        }

                        else {
                            votes[2] += 1;
                        }

                        // tree #39
                        if (x[0] <= 0.5029093623161316) {
                            if (x[1] <= -0.8655926883220673) {
                                votes[0] += 1;
                            }

                            else {
                                votes[1] += 1;
                            }
                        }

                        else {
                            votes[2] += 1;
                        }

                        // tree #40
                        if (x[0] <= 0.5029093623161316) {
                            if (x[1] <= -0.8664582967758179) {
                                votes[0] += 1;
                            }

                            else {
                                votes[1] += 1;
                            }
                        }

                        else {
                            votes[2] += 1;
                        }

                        // tree #41
                        if (x[1] <= 0.5029093623161316) {
                            if (x[0] <= -0.864727109670639) {
                                votes[0] += 1;
                            }

                            else {
                                votes[1] += 1;
                            }
                        }

                        else {
                            votes[2] += 1;
                        }

                        // tree #42
                        if (x[0] <= 0.5029093623161316) {
                            if (x[0] <= -0.8655926883220673) {
                                votes[0] += 1;
                            }

                            else {
                                votes[1] += 1;
                            }
                        }

                        else {
                            votes[2] += 1;
                        }

                        // tree #43
                        if (x[1] <= 0.5029093623161316) {
                            if (x[0] <= -0.8655927181243896) {
                                votes[0] += 1;
                            }

                            else {
                                votes[1] += 1;
                            }
                        }

                        else {
                            votes[2] += 1;
                        }

                        // tree #44
                        if (x[0] <= 0.5029093623161316) {
                            if (x[1] <= -0.8655926883220673) {
                                votes[0] += 1;
                            }

                            else {
                                votes[1] += 1;
                            }
                        }

                        else {
                            votes[2] += 1;
                        }

                        // tree #45
                        if (x[0] <= 0.5029093623161316) {
                            if (x[1] <= -0.8629959523677826) {
                                votes[0] += 1;
                            }

                            else {
                                votes[1] += 1;
                            }
                        }

                        else {
                            votes[2] += 1;
                        }

                        // tree #46
                        if (x[1] <= 0.5081029236316681) {
                            if (x[1] <= -0.8664582967758179) {
                                votes[0] += 1;
                            }

                            else {
                                votes[1] += 1;
                            }
                        }

                        else {
                            votes[2] += 1;
                        }

                        // tree #47
                        if (x[1] <= 0.5011781752109528) {
                            if (x[0] <= -0.864727109670639) {
                                votes[0] += 1;
                            }

                            else {
                                votes[1] += 1;
                            }
                        }

                        else {
                            votes[2] += 1;
                        }

                        // tree #48
                        if (x[0] <= 0.5063717365264893) {
                            if (x[0] <= -0.864727109670639) {
                                votes[0] += 1;
                            }

                            else {
                                votes[1] += 1;
                            }
                        }

                        else {
                            votes[2] += 1;
                        }

                        // tree #49
                        if (x[1] <= 0.5046405494213104) {
                            if (x[0] <= -0.864727109670639) {
                                votes[0] += 1;
                            }

                            else {
                                votes[1] += 1;
                            }
                        }

                        else {
                            votes[2] += 1;
                        }

                        // tree #50
                        if (x[1] <= 0.5037749707698822) {
                            if (x[0] <= -0.864727109670639) {
                                votes[0] += 1;
                            }

                            else {
                                votes[1] += 1;
                            }
                        }

                        else {
                            votes[2] += 1;
                        }

                        // tree #51
                        if (x[0] <= 0.5046405494213104) {
                            if (x[0] <= -0.864727109670639) {
                                votes[0] += 1;
                            }

                            else {
                                votes[1] += 1;
                            }
                        }

                        else {
                            votes[2] += 1;
                        }

                        // tree #52
                        if (x[0] <= 0.5037749707698822) {
                            if (x[1] <= -0.864727109670639) {
                                votes[0] += 1;
                            }

                            else {
                                votes[1] += 1;
                            }
                        }

                        else {
                            votes[2] += 1;
                        }

                        // tree #53
                        if (x[1] <= 0.5029093623161316) {
                            if (x[1] <= -0.8655926883220673) {
                                votes[0] += 1;
                            }

                            else {
                                votes[1] += 1;
                            }
                        }

                        else {
                            votes[2] += 1;
                        }

                        // tree #54
                        if (x[1] <= 0.4977158159017563) {
                            if (x[1] <= -0.8638615310192108) {
                                votes[0] += 1;
                            }

                            else {
                                votes[1] += 1;
                            }
                        }

                        else {
                            votes[2] += 1;
                        }

                        // tree #55
                        if (x[0] <= 0.5037749707698822) {
                            if (x[1] <= -0.8638615310192108) {
                                votes[0] += 1;
                            }

                            else {
                                votes[1] += 1;
                            }
                        }

                        else {
                            votes[2] += 1;
                        }

                        // tree #56
                        if (x[1] <= 0.5029093623161316) {
                            if (x[1] <= -0.8664582967758179) {
                                votes[0] += 1;
                            }

                            else {
                                votes[1] += 1;
                            }
                        }

                        else {
                            votes[2] += 1;
                        }

                        // tree #57
                        if (x[0] <= 0.5046405494213104) {
                            if (x[1] <= -0.864727109670639) {
                                votes[0] += 1;
                            }

                            else {
                                votes[1] += 1;
                            }
                        }

                        else {
                            votes[2] += 1;
                        }

                        // tree #58
                        if (x[1] <= 0.5029093623161316) {
                            if (x[0] <= -0.864727109670639) {
                                votes[0] += 1;
                            }

                            else {
                                votes[1] += 1;
                            }
                        }

                        else {
                            votes[2] += 1;
                        }

                        // tree #59
                        if (x[1] <= 0.5029093623161316) {
                            if (x[1] <= -0.8673238754272461) {
                                votes[0] += 1;
                            }

                            else {
                                votes[1] += 1;
                            }
                        }

                        else {
                            votes[2] += 1;
                        }

                        // tree #60
                        if (x[1] <= 0.5029093623161316) {
                            if (x[0] <= -0.864727109670639) {
                                votes[0] += 1;
                            }

                            else {
                                votes[1] += 1;
                            }
                        }

                        else {
                            votes[2] += 1;
                        }

                        // tree #61
                        if (x[0] <= 0.5011781752109528) {
                            if (x[0] <= -0.864727109670639) {
                                votes[0] += 1;
                            }

                            else {
                                votes[1] += 1;
                            }
                        }

                        else {
                            votes[2] += 1;
                        }

                        // tree #62
                        if (x[1] <= 0.5011781752109528) {
                            if (x[0] <= -0.8655927181243896) {
                                votes[0] += 1;
                            }

                            else {
                                votes[1] += 1;
                            }
                        }

                        else {
                            votes[2] += 1;
                        }

                        // tree #63
                        if (x[1] <= 0.5029093623161316) {
                            if (x[1] <= -0.864727109670639) {
                                votes[0] += 1;
                            }

                            else {
                                votes[1] += 1;
                            }
                        }

                        else {
                            votes[2] += 1;
                        }

                        // tree #64
                        if (x[0] <= 0.5003125816583633) {
                            if (x[0] <= -0.864727109670639) {
                                votes[0] += 1;
                            }

                            else {
                                votes[1] += 1;
                            }
                        }

                        else {
                            votes[2] += 1;
                        }

                        // tree #65
                        if (x[1] <= 0.5029093623161316) {
                            if (x[1] <= -0.8655926883220673) {
                                votes[0] += 1;
                            }

                            else {
                                votes[1] += 1;
                            }
                        }

                        else {
                            votes[2] += 1;
                        }

                        // tree #66
                        if (x[0] <= 0.5029093623161316) {
                            if (x[0] <= -0.864727109670639) {
                                votes[0] += 1;
                            }

                            else {
                                votes[1] += 1;
                            }
                        }

                        else {
                            votes[2] += 1;
                        }

                        // tree #67
                        if (x[1] <= 0.5020437836647034) {
                            if (x[0] <= -0.864727109670639) {
                                votes[0] += 1;
                            }

                            else {
                                votes[1] += 1;
                            }
                        }

                        else {
                            votes[2] += 1;
                        }

                        // tree #68
                        if (x[1] <= 0.5029093623161316) {
                            if (x[1] <= -0.8655926883220673) {
                                votes[0] += 1;
                            }

                            else {
                                votes[1] += 1;
                            }
                        }

                        else {
                            votes[2] += 1;
                        }

                        // tree #69
                        if (x[1] <= 0.5037749707698822) {
                            if (x[0] <= -0.8629959523677826) {
                                votes[0] += 1;
                            }

                            else {
                                votes[1] += 1;
                            }
                        }

                        else {
                            votes[2] += 1;
                        }

                        // tree #70
                        if (x[1] <= 0.5037749707698822) {
                            if (x[0] <= -0.864727109670639) {
                                votes[0] += 1;
                            }

                            else {
                                votes[1] += 1;
                            }
                        }

                        else {
                            votes[2] += 1;
                        }

                        // tree #71
                        if (x[0] <= 0.5011781752109528) {
                            if (x[1] <= -0.8638615310192108) {
                                votes[0] += 1;
                            }

                            else {
                                votes[1] += 1;
                            }
                        }

                        else {
                            votes[2] += 1;
                        }

                        // tree #72
                        if (x[0] <= 0.5029093623161316) {
                            if (x[0] <= -0.8638615310192108) {
                                votes[0] += 1;
                            }

                            else {
                                votes[1] += 1;
                            }
                        }

                        else {
                            votes[2] += 1;
                        }

                        // tree #73
                        if (x[1] <= 0.5046405494213104) {
                            if (x[0] <= -0.8655926883220673) {
                                votes[0] += 1;
                            }

                            else {
                                votes[1] += 1;
                            }
                        }

                        else {
                            votes[2] += 1;
                        }

                        // tree #74
                        if (x[0] <= 0.5029093623161316) {
                            if (x[0] <= -0.864727109670639) {
                                votes[0] += 1;
                            }

                            else {
                                votes[1] += 1;
                            }
                        }

                        else {
                            votes[2] += 1;
                        }

                        // tree #75
                        if (x[1] <= 0.5003125816583633) {
                            if (x[1] <= -0.864727109670639) {
                                votes[0] += 1;
                            }

                            else {
                                votes[1] += 1;
                            }
                        }

                        else {
                            votes[2] += 1;
                        }

                        // tree #76
                        if (x[1] <= 0.5029093623161316) {
                            if (x[1] <= -0.864727109670639) {
                                votes[0] += 1;
                            }

                            else {
                                votes[1] += 1;
                            }
                        }

                        else {
                            votes[2] += 1;
                        }

                        // tree #77
                        if (x[0] <= 0.5003125816583633) {
                            if (x[0] <= -0.8638615310192108) {
                                votes[0] += 1;
                            }

                            else {
                                votes[1] += 1;
                            }
                        }

                        else {
                            votes[2] += 1;
                        }

                        // tree #78
                        if (x[1] <= 0.5029093623161316) {
                            if (x[1] <= -0.8638615310192108) {
                                votes[0] += 1;
                            }

                            else {
                                votes[1] += 1;
                            }
                        }

                        else {
                            votes[2] += 1;
                        }

                        // tree #79
                        if (x[0] <= 0.5029093623161316) {
                            if (x[0] <= -0.8655926883220673) {
                                votes[0] += 1;
                            }

                            else {
                                votes[1] += 1;
                            }
                        }

                        else {
                            votes[2] += 1;
                        }

                        // tree #80
                        if (x[0] <= 0.5029093623161316) {
                            if (x[0] <= -0.8655926883220673) {
                                votes[0] += 1;
                            }

                            else {
                                votes[1] += 1;
                            }
                        }

                        else {
                            votes[2] += 1;
                        }

                        // tree #81
                        if (x[1] <= 0.5020437836647034) {
                            if (x[0] <= -0.8638615310192108) {
                                votes[0] += 1;
                            }

                            else {
                                votes[1] += 1;
                            }
                        }

                        else {
                            votes[2] += 1;
                        }

                        // tree #82
                        if (x[1] <= 0.5029093623161316) {
                            if (x[0] <= -0.8655926883220673) {
                                votes[0] += 1;
                            }

                            else {
                                votes[1] += 1;
                            }
                        }

                        else {
                            votes[2] += 1;
                        }

                        // tree #83
                        if (x[0] <= 0.5029093623161316) {
                            if (x[0] <= -0.8629959523677826) {
                                votes[0] += 1;
                            }

                            else {
                                votes[1] += 1;
                            }
                        }

                        else {
                            votes[2] += 1;
                        }

                        // tree #84
                        if (x[0] <= 0.5020437836647034) {
                            if (x[1] <= -0.864727109670639) {
                                votes[0] += 1;
                            }

                            else {
                                votes[1] += 1;
                            }
                        }

                        else {
                            votes[2] += 1;
                        }

                        // tree #85
                        if (x[0] <= 0.5029093623161316) {
                            if (x[0] <= -0.8638615310192108) {
                                votes[0] += 1;
                            }

                            else {
                                votes[1] += 1;
                            }
                        }

                        else {
                            votes[2] += 1;
                        }

                        // tree #86
                        if (x[1] <= 0.5029093623161316) {
                            if (x[1] <= -0.8638615310192108) {
                                votes[0] += 1;
                            }

                            else {
                                votes[1] += 1;
                            }
                        }

                        else {
                            votes[2] += 1;
                        }

                        // tree #87
                        if (x[0] <= 0.5037749707698822) {
                            if (x[1] <= -0.8664582967758179) {
                                votes[0] += 1;
                            }

                            else {
                                votes[1] += 1;
                            }
                        }

                        else {
                            votes[2] += 1;
                        }

                        // tree #88
                        if (x[0] <= 0.5029093623161316) {
                            if (x[0] <= -0.8681894838809967) {
                                votes[0] += 1;
                            }

                            else {
                                votes[1] += 1;
                            }
                        }

                        else {
                            votes[2] += 1;
                        }

                        // tree #89
                        if (x[1] <= 0.5037749707698822) {
                            if (x[0] <= -0.8655926883220673) {
                                votes[0] += 1;
                            }

                            else {
                                votes[1] += 1;
                            }
                        }

                        else {
                            votes[2] += 1;
                        }

                        // tree #90
                        if (x[1] <= 0.5029093623161316) {
                            if (x[0] <= -0.8638615310192108) {
                                votes[0] += 1;
                            }

                            else {
                                votes[1] += 1;
                            }
                        }

                        else {
                            votes[2] += 1;
                        }

                        // tree #91
                        if (x[1] <= 0.5003125816583633) {
                            if (x[0] <= -0.8655926883220673) {
                                votes[0] += 1;
                            }

                            else {
                                votes[1] += 1;
                            }
                        }

                        else {
                            votes[2] += 1;
                        }

                        // tree #92
                        if (x[1] <= 0.5029093623161316) {
                            if (x[0] <= -0.8664582967758179) {
                                votes[0] += 1;
                            }

                            else {
                                votes[1] += 1;
                            }
                        }

                        else {
                            votes[2] += 1;
                        }

                        // tree #93
                        if (x[1] <= 0.5029093623161316) {
                            if (x[1] <= -0.864727109670639) {
                                votes[0] += 1;
                            }

                            else {
                                votes[1] += 1;
                            }
                        }

                        else {
                            votes[2] += 1;
                        }

                        // tree #94
                        if (x[1] <= 0.5020437836647034) {
                            if (x[0] <= -0.8673238754272461) {
                                votes[0] += 1;
                            }

                            else {
                                votes[1] += 1;
                            }
                        }

                        else {
                            votes[2] += 1;
                        }

                        // tree #95
                        if (x[0] <= 0.5037749707698822) {
                            if (x[0] <= -0.864727109670639) {
                                votes[0] += 1;
                            }

                            else {
                                votes[1] += 1;
                            }
                        }

                        else {
                            votes[2] += 1;
                        }

                        // tree #96
                        if (x[0] <= 0.5046405494213104) {
                            if (x[1] <= -0.8664582967758179) {
                                votes[0] += 1;
                            }

                            else {
                                votes[1] += 1;
                            }
                        }

                        else {
                            votes[2] += 1;
                        }

                        // tree #97
                        if (x[1] <= 0.5029093623161316) {
                            if (x[0] <= -0.864727109670639) {
                                votes[0] += 1;
                            }

                            else {
                                votes[1] += 1;
                            }
                        }

                        else {
                            votes[2] += 1;
                        }

                        // tree #98
                        if (x[0] <= 0.5063717365264893) {
                            if (x[1] <= -0.864727109670639) {
                                votes[0] += 1;
                            }

                            else {
                                votes[1] += 1;
                            }
                        }

                        else {
                            votes[2] += 1;
                        }

                        // tree #99
                        if (x[1] <= 0.5011781752109528) {
                            if (x[0] <= -0.8638615310192108) {
                                votes[0] += 1;
                            }

                            else {
                                votes[1] += 1;
                            }
                        }

                        else {
                            votes[2] += 1;
                        }

                        // tree #100
                        if (x[0] <= 0.5011781752109528) {
                            if (x[1] <= -0.8664582967758179) {
                                votes[0] += 1;
                            }

                            else {
                                votes[1] += 1;
                            }
                        }

                        else {
                            votes[2] += 1;
                        }

                        // tree #101
                        if (x[0] <= 0.5037749707698822) {
                            if (x[0] <= -0.864727109670639) {
                                votes[0] += 1;
                            }

                            else {
                                votes[1] += 1;
                            }
                        }

                        else {
                            votes[2] += 1;
                        }

                        // tree #102
                        if (x[1] <= 0.5020437836647034) {
                            if (x[0] <= -0.8629959523677826) {
                                votes[0] += 1;
                            }

                            else {
                                votes[1] += 1;
                            }
                        }

                        else {
                            votes[2] += 1;
                        }

                        // tree #103
                        if (x[0] <= 0.5029093623161316) {
                            if (x[0] <= -0.864727109670639) {
                                votes[0] += 1;
                            }

                            else {
                                votes[1] += 1;
                            }
                        }

                        else {
                            votes[2] += 1;
                        }

                        // tree #104
                        if (x[0] <= 0.5046405494213104) {
                            if (x[0] <= -0.864727109670639) {
                                votes[0] += 1;
                            }

                            else {
                                votes[1] += 1;
                            }
                        }

                        else {
                            votes[2] += 1;
                        }

                        // tree #105
                        if (x[1] <= 0.5029093623161316) {
                            if (x[0] <= -0.864727109670639) {
                                votes[0] += 1;
                            }

                            else {
                                votes[1] += 1;
                            }
                        }

                        else {
                            votes[2] += 1;
                        }

                        // tree #106
                        if (x[1] <= 0.5029093623161316) {
                            if (x[0] <= -0.8629959523677826) {
                                votes[0] += 1;
                            }

                            else {
                                votes[1] += 1;
                            }
                        }

                        else {
                            votes[2] += 1;
                        }

                        // tree #107
                        if (x[0] <= 0.5029093623161316) {
                            if (x[0] <= -0.864727109670639) {
                                votes[0] += 1;
                            }

                            else {
                                votes[1] += 1;
                            }
                        }

                        else {
                            votes[2] += 1;
                        }

                        // tree #108
                        if (x[1] <= 0.5029093623161316) {
                            if (x[0] <= -0.8655926883220673) {
                                votes[0] += 1;
                            }

                            else {
                                votes[1] += 1;
                            }
                        }

                        else {
                            votes[2] += 1;
                        }

                        // tree #109
                        if (x[1] <= 0.5020437687635422) {
                            if (x[1] <= -0.8655926883220673) {
                                votes[0] += 1;
                            }

                            else {
                                votes[1] += 1;
                            }
                        }

                        else {
                            votes[2] += 1;
                        }

                        // tree #110
                        if (x[1] <= 0.5029093623161316) {
                            if (x[0] <= -0.8638615310192108) {
                                votes[0] += 1;
                            }

                            else {
                                votes[1] += 1;
                            }
                        }

                        else {
                            votes[2] += 1;
                        }

                        // tree #111
                        if (x[0] <= 0.5011781752109528) {
                            if (x[1] <= -0.864727109670639) {
                                votes[0] += 1;
                            }

                            else {
                                votes[1] += 1;
                            }
                        }

                        else {
                            votes[2] += 1;
                        }

                        // tree #112
                        if (x[0] <= 0.5063717365264893) {
                            if (x[1] <= -0.864727109670639) {
                                votes[0] += 1;
                            }

                            else {
                                votes[1] += 1;
                            }
                        }

                        else {
                            votes[2] += 1;
                        }

                        // tree #113
                        if (x[0] <= 0.5029093623161316) {
                            if (x[1] <= -0.862130343914032) {
                                votes[0] += 1;
                            }

                            else {
                                votes[1] += 1;
                            }
                        }

                        else {
                            votes[2] += 1;
                        }

                        // tree #114
                        if (x[0] <= 0.5020437836647034) {
                            if (x[1] <= -0.862130343914032) {
                                votes[0] += 1;
                            }

                            else {
                                votes[1] += 1;
                            }
                        }

                        else {
                            votes[2] += 1;
                        }

                        // tree #115
                        if (x[1] <= 0.5029093623161316) {
                            if (x[0] <= -0.864727109670639) {
                                votes[0] += 1;
                            }

                            else {
                                votes[1] += 1;
                            }
                        }

                        else {
                            votes[2] += 1;
                        }

                        // tree #116
                        if (x[1] <= 0.5037749707698822) {
                            if (x[0] <= -0.864727109670639) {
                                votes[0] += 1;
                            }

                            else {
                                votes[1] += 1;
                            }
                        }

                        else {
                            votes[2] += 1;
                        }

                        // tree #117
                        if (x[0] <= 0.5037749707698822) {
                            if (x[0] <= -0.864727109670639) {
                                votes[0] += 1;
                            }

                            else {
                                votes[1] += 1;
                            }
                        }

                        else {
                            votes[2] += 1;
                        }

                        // tree #118
                        if (x[1] <= 0.5037749707698822) {
                            if (x[0] <= -0.864727109670639) {
                                votes[0] += 1;
                            }

                            else {
                                votes[1] += 1;
                            }
                        }

                        else {
                            votes[2] += 1;
                        }

                        // tree #119
                        if (x[0] <= 0.5029093623161316) {
                            if (x[0] <= -0.8629959523677826) {
                                votes[0] += 1;
                            }

                            else {
                                votes[1] += 1;
                            }
                        }

                        else {
                            votes[2] += 1;
                        }

                        // tree #120
                        if (x[0] <= 0.5011781752109528) {
                            if (x[1] <= -0.8638615310192108) {
                                votes[0] += 1;
                            }

                            else {
                                votes[1] += 1;
                            }
                        }

                        else {
                            votes[2] += 1;
                        }

                        // tree #121
                        if (x[1] <= 0.5020437836647034) {
                            if (x[0] <= -0.8638615310192108) {
                                votes[0] += 1;
                            }

                            else {
                                votes[1] += 1;
                            }
                        }

                        else {
                            votes[2] += 1;
                        }

                        // tree #122
                        if (x[0] <= 0.5003125816583633) {
                            if (x[0] <= -0.8655926883220673) {
                                votes[0] += 1;
                            }

                            else {
                                votes[1] += 1;
                            }
                        }

                        else {
                            votes[2] += 1;
                        }

                        // tree #123
                        if (x[1] <= 0.5011781752109528) {
                            if (x[0] <= -0.864727109670639) {
                                votes[0] += 1;
                            }

                            else {
                                votes[1] += 1;
                            }
                        }

                        else {
                            votes[2] += 1;
                        }

                        // tree #124
                        if (x[1] <= 0.5020437836647034) {
                            if (x[1] <= -0.864727109670639) {
                                votes[0] += 1;
                            }

                            else {
                                votes[1] += 1;
                            }
                        }

                        else {
                            votes[2] += 1;
                        }

                        // tree #125
                        if (x[1] <= 0.5037749707698822) {
                            if (x[1] <= -0.864727109670639) {
                                votes[0] += 1;
                            }

                            else {
                                votes[1] += 1;
                            }
                        }

                        else {
                            votes[2] += 1;
                        }

                        // tree #126
                        if (x[0] <= 0.5037749707698822) {
                            if (x[1] <= -0.864727109670639) {
                                votes[0] += 1;
                            }

                            else {
                                votes[1] += 1;
                            }
                        }

                        else {
                            votes[2] += 1;
                        }

                        // tree #127
                        if (x[0] <= 0.5020437836647034) {
                            if (x[1] <= -0.8664582967758179) {
                                votes[0] += 1;
                            }

                            else {
                                votes[1] += 1;
                            }
                        }

                        else {
                            votes[2] += 1;
                        }

                        // tree #128
                        if (x[0] <= 0.5037749707698822) {
                            if (x[0] <= -0.8664582967758179) {
                                votes[0] += 1;
                            }

                            else {
                                votes[1] += 1;
                            }
                        }

                        else {
                            votes[2] += 1;
                        }

                        // tree #129
                        if (x[1] <= 0.5003125816583633) {
                            if (x[0] <= -0.864727109670639) {
                                votes[0] += 1;
                            }

                            else {
                                votes[1] += 1;
                            }
                        }

                        else {
                            votes[2] += 1;
                        }

                        // tree #130
                        if (x[1] <= 0.5029093623161316) {
                            if (x[0] <= -0.864727109670639) {
                                votes[0] += 1;
                            }

                            else {
                                votes[1] += 1;
                            }
                        }

                        else {
                            votes[2] += 1;
                        }

                        // tree #131
                        if (x[0] <= 0.5029093623161316) {
                            if (x[1] <= -0.864727109670639) {
                                votes[0] += 1;
                            }

                            else {
                                votes[1] += 1;
                            }
                        }

                        else {
                            votes[2] += 1;
                        }

                        // tree #132
                        if (x[0] <= 0.5029093623161316) {
                            if (x[1] <= -0.8638615310192108) {
                                votes[0] += 1;
                            }

                            else {
                                votes[1] += 1;
                            }
                        }

                        else {
                            votes[2] += 1;
                        }

                        // tree #133
                        if (x[0] <= 0.5029093623161316) {
                            if (x[1] <= -0.8629959523677826) {
                                votes[0] += 1;
                            }

                            else {
                                votes[1] += 1;
                            }
                        }

                        else {
                            votes[2] += 1;
                        }

                        // tree #134
                        if (x[1] <= 0.5011781752109528) {
                            if (x[0] <= -0.8655926883220673) {
                                votes[0] += 1;
                            }

                            else {
                                votes[1] += 1;
                            }
                        }

                        else {
                            votes[2] += 1;
                        }

                        // tree #135
                        if (x[0] <= 0.5029093623161316) {
                            if (x[1] <= -0.864727109670639) {
                                votes[0] += 1;
                            }

                            else {
                                votes[1] += 1;
                            }
                        }

                        else {
                            votes[2] += 1;
                        }

                        // tree #136
                        if (x[1] <= 0.5037749707698822) {
                            if (x[0] <= -0.864727109670639) {
                                votes[0] += 1;
                            }

                            else {
                                votes[1] += 1;
                            }
                        }

                        else {
                            votes[2] += 1;
                        }

                        // tree #137
                        if (x[0] <= 0.5037749707698822) {
                            if (x[0] <= -0.8638615310192108) {
                                votes[0] += 1;
                            }

                            else {
                                votes[1] += 1;
                            }
                        }

                        else {
                            votes[2] += 1;
                        }

                        // tree #138
                        if (x[1] <= 0.5029093623161316) {
                            if (x[0] <= -0.864727109670639) {
                                votes[0] += 1;
                            }

                            else {
                                votes[1] += 1;
                            }
                        }

                        else {
                            votes[2] += 1;
                        }

                        // tree #139
                        if (x[0] <= 0.5029093623161316) {
                            if (x[1] <= -0.8655926883220673) {
                                votes[0] += 1;
                            }

                            else {
                                votes[1] += 1;
                            }
                        }

                        else {
                            votes[2] += 1;
                        }

                        // tree #140
                        if (x[0] <= 0.5011781752109528) {
                            if (x[0] <= -0.8629959523677826) {
                                votes[0] += 1;
                            }

                            else {
                                votes[1] += 1;
                            }
                        }

                        else {
                            votes[2] += 1;
                        }

                        // tree #141
                        if (x[0] <= 0.5037749707698822) {
                            if (x[1] <= -0.8664582967758179) {
                                votes[0] += 1;
                            }

                            else {
                                votes[1] += 1;
                            }
                        }

                        else {
                            votes[2] += 1;
                        }

                        // tree #142
                        if (x[0] <= 0.5046405494213104) {
                            if (x[0] <= -0.864727109670639) {
                                votes[0] += 1;
                            }

                            else {
                                votes[1] += 1;
                            }
                        }

                        else {
                            votes[2] += 1;
                        }

                        // tree #143
                        if (x[0] <= 0.5029093623161316) {
                            if (x[1] <= -0.864727109670639) {
                                votes[0] += 1;
                            }

                            else {
                                votes[1] += 1;
                            }
                        }

                        else {
                            votes[2] += 1;
                        }

                        // tree #144
                        if (x[0] <= 0.5037749707698822) {
                            if (x[1] <= -0.8655927181243896) {
                                votes[0] += 1;
                            }

                            else {
                                votes[1] += 1;
                            }
                        }

                        else {
                            votes[2] += 1;
                        }

                        // tree #145
                        if (x[0] <= 0.5029093623161316) {
                            if (x[1] <= -0.864727109670639) {
                                votes[0] += 1;
                            }

                            else {
                                votes[1] += 1;
                            }
                        }

                        else {
                            votes[2] += 1;
                        }

                        // tree #146
                        if (x[0] <= 0.5029093623161316) {
                            if (x[0] <= -0.8638615310192108) {
                                votes[0] += 1;
                            }

                            else {
                                votes[1] += 1;
                            }
                        }

                        else {
                            votes[2] += 1;
                        }

                        // tree #147
                        if (x[1] <= 0.5003125816583633) {
                            if (x[0] <= -0.864727109670639) {
                                votes[0] += 1;
                            }

                            else {
                                votes[1] += 1;
                            }
                        }

                        else {
                            votes[2] += 1;
                        }

                        // tree #148
                        if (x[1] <= 0.49598461389541626) {
                            if (x[0] <= -0.864727109670639) {
                                votes[0] += 1;
                            }

                            else {
                                votes[1] += 1;
                            }
                        }

                        else {
                            votes[2] += 1;
                        }

                        // tree #149
                        if (x[1] <= 0.5029093623161316) {
                            if (x[1] <= -0.864727109670639) {
                                votes[0] += 1;
                            }

                            else {
                                votes[1] += 1;
                            }
                        }

                        else {
                            votes[2] += 1;
                        }

                        // tree #150
                        if (x[0] <= 0.5003125816583633) {
                            if (x[0] <= -0.864727109670639) {
                                votes[0] += 1;
                            }

                            else {
                                votes[1] += 1;
                            }
                        }

                        else {
                            votes[2] += 1;
                        }

                        // return argmax of votes
                        uint8_t classIdx = 0;
                        float maxVotes = votes[0];

                        for (uint8_t i = 1; i < 3; i++) {
                            if (votes[i] > maxVotes) {
                                classIdx = i;
                                maxVotes = votes[i];
                            }
                        }

                        return classIdx;
                    }

                protected:
                };
            }
        }
    }
